digraph Tree {
node [shape=box, style="rounded", color="black", fontname="helvetica"] ;
edge [fontname="helvetica"] ;
0 [label="MEAN_TEMPERATURE <= 8.7\nsquared_error = 10169.7\nsamples = 5483\nvalue = 88.8"] ;
1 [label="MEAN_TEMPERATURE <= 5.4\nsquared_error = 1296.8\nsamples = 3476\nvalue = 29.0"] ;
0 -> 1 [labeldistance=2.5, labelangle=45, headlabel="True"] ;
2 [label="Month <= 4.5\nsquared_error = 389.2\nsamples = 2946\nvalue = 21.0"] ;
1 -> 2 ;
3 [label="squared_error = 13.3\nsamples = 1634\nvalue = 12.7"] ;
2 -> 3 ;
4 [label="squared_error = 664.7\nsamples = 1312\nvalue = 31.4"] ;
2 -> 4 ;
5 [label="Month <= 4.5\nsquared_error = 4021.7\nsamples = 530\nvalue = 71.9"] ;
1 -> 5 ;
6 [label="squared_error = 198.1\nsamples = 115\nvalue = 20.1"] ;
5 -> 6 ;
7 [label="squared_error = 4111.6\nsamples = 415\nvalue = 88.4"] ;
5 -> 7 ;
8 [label="Month <= 8.5\nsquared_error = 8743.5\nsamples = 2007\nvalue = 191.1"] ;
0 -> 8 [labeldistance=2.5, labelangle=-45, headlabel="False"] ;
9 [label="Month <= 5.5\nsquared_error = 8303.1\nsamples = 1634\nvalue = 210.6"] ;
8 -> 9 ;
10 [label="squared_error = 8009.1\nsamples = 282\nvalue = 119.1"] ;
9 -> 10 ;
11 [label="squared_error = 6278.0\nsamples = 1352\nvalue = 229.5"] ;
9 -> 11 ;
12 [label="Month <= 9.5\nsquared_error = 1574.9\nsamples = 373\nvalue = 104.9"] ;
8 -> 12 ;
13 [label="squared_error = 1384.3\nsamples = 309\nvalue = 113.5"] ;
12 -> 13 ;
14 [label="squared_error = 493.2\nsamples = 64\nvalue = 64.6"] ;
12 -> 14 ;
}