digraph Tree {
node [shape=box, style="rounded", color="black", fontname="helvetica"] ;
edge [fontname="helvetica"] ;
0 [label="MEAN_TEMPERATURE <= 8.8\nsquared_error = 10269.1\nsamples = 5468\nvalue = 87.8"] ;
1 [label="HEATING_DEGREE_DAYS <= 12.8\nsquared_error = 1450.2\nsamples = 3532\nvalue = 29.3"] ;
0 -> 1 [labeldistance=2.5, labelangle=45, headlabel="True"] ;
2 [label="TOTAL_PRECIPITATION <= 14.2\nsquared_error = 4839.9\nsamples = 562\nvalue = 73.9"] ;
1 -> 2 ;
3 [label="squared_error = 3535.9\nsamples = 545\nvalue = 68.1"] ;
2 -> 3 ;
4 [label="squared_error = 11643.7\nsamples = 17\nvalue = 260.0"] ;
2 -> 4 ;
5 [label="Month <= 4.5\nsquared_error = 354.2\nsamples = 2970\nvalue = 20.8"] ;
1 -> 5 ;
6 [label="squared_error = 11.8\nsamples = 1639\nvalue = 12.8"] ;
5 -> 6 ;
7 [label="squared_error = 602.2\nsamples = 1331\nvalue = 31.0"] ;
5 -> 7 ;
8 [label="Month <= 8.5\nsquared_error = 8416.4\nsamples = 1936\nvalue = 197.1"] ;
0 -> 8 [labeldistance=2.5, labelangle=-45, headlabel="False"] ;
9 [label="Month <= 5.5\nsquared_error = 7945.9\nsamples = 1600\nvalue = 214.3"] ;
8 -> 9 ;
10 [label="squared_error = 7169.4\nsamples = 259\nvalue = 119.5"] ;
9 -> 10 ;
11 [label="squared_error = 6101.9\nsamples = 1341\nvalue = 232.0"] ;
9 -> 11 ;
12 [label="Month <= 9.5\nsquared_error = 1479.3\nsamples = 336\nvalue = 108.6"] ;
8 -> 12 ;
13 [label="squared_error = 1331.5\nsamples = 286\nvalue = 114.9"] ;
12 -> 13 ;
14 [label="squared_error = 487.9\nsamples = 50\nvalue = 67.5"] ;
12 -> 14 ;
}